{"layers":[{"Neurons":[{"Weights":[],"Bias":1.1007291937500207e-13,"Lrate":-9.927431907514367e-14},{"Weights":[],"Bias":-1.4350469221322282e-13,"Lrate":-2.1514366827426447e-13},{"Weights":[],"Bias":-8.460943734555971e-14,"Lrate":-8.279503413614919e-15},{"Weights":[],"Bias":2.797437186631715e-14,"Lrate":-1.7389063978084926e-13}],"Length":4},{"Neurons":[{"Weights":[2.209393877620178,6.643668534757606,-6.126729321860915,-9.814431483108132],"Bias":10.448914831524064,"Lrate":-8.332519091897401e-14},{"Weights":[0.4656352050198057,0.734475530290583,0.8147392241292026,-10.16688795665001],"Bias":8.416730650484158,"Lrate":-2.952136538254423e-14},{"Weights":[1.0658469503583825,5.745550667004329,-3.961584685529259,-9.050365461622562],"Bias":8.829683191499287,"Lrate":8.356683570259137e-14},{"Weights":[5.934934083093721,-0.2655171105184045,-8.198462989444423,-9.115334223299174],"Bias":9.820655703670909,"Lrate":-3.687784607473625e-14},{"Weights":[8.873694177203523,-0.3599271801973938,-10.154528343729151,-11.677710463953376],"Bias":12.409034495238622,"Lrate":1.20395839043302e-13},{"Weights":[9.341149330189154,-0.9906486324210566,-10.24771962657649,-10.23288693073506],"Bias":9.736780769279779,"Lrate":9.481911735496798e-15},{"Weights":[1.6037150820306718,7.363495778162634,-7.061875722727772,-9.927063670444783],"Bias":9.91327813077819,"Lrate":-2.326429855201535e-13},{"Weights":[0.8954979811080783,6.228770225522949,-5.79587422802331,-9.857457413008516],"Bias":8.294285604531662,"Lrate":5.71082176946536e-14},{"Weights":[9.404282886570902,-1.2407011524347105,-8.812986537486518,-9.6908671577241],"Bias":9.88796721428683,"Lrate":-1.1924735547803242e-13},{"Weights":[7.437529891440505,-0.28857686215655065,-8.50077995131082,-9.255646039230554],"Bias":8.853257002908688,"Lrate":-2.1669240008520708e-13},{"Weights":[9.621152116567075,-1.3638967463021003,-8.805814800420906,-10.119804829071304],"Bias":9.723896044392287,"Lrate":-9.050090105333553e-14},{"Weights":[7.551041289255765,-0.7640361883895335,-10.232079067904262,-10.110257779183208],"Bias":10.428996242550632,"Lrate":-5.091119599674732e-15},{"Weights":[0.6891109467271261,-0.08339496421238918,1.711084977371447,-10.98858598112096],"Bias":8.111816880669547,"Lrate":-1.2129700099361747e-13},{"Weights":[1.485096201335563,7.4938568384815625,-5.294414842849017,-10.153025707629146],"Bias":9.092956630422137,"Lrate":-6.949177941434541e-14},{"Weights":[6.242250381195106,-0.16680539301976455,-9.290381764463149,-8.603250504440265],"Bias":8.271724802351931,"Lrate":-2.230107839590404e-13},{"Weights":[0.8112680193699887,1.7261440202833132,-2.6442249321085596,-4.668372640267663],"Bias":0.6157964983863246,"Lrate":7.505384284263401e-15},{"Weights":[7.467924538709442,-1.006981377932161,-9.85903508503674,-8.93447180610891],"Bias":8.266288229932265,"Lrate":-1.4811085572040577e-13},{"Weights":[9.68411570656907,-0.9914306903595389,-12.782396446386304,-10.811619928208474],"Bias":11.137614906037781,"Lrate":1.573019754634375e-13},{"Weights":[2.666941455666477,2.3860255586848336,-0.9978094713892675,-4.054466872118556],"Bias":0.8608102168368911,"Lrate":-1.2778355991869717e-13},{"Weights":[0.4218729204591784,3.978142190499583,-2.22156725043927,-6.448998459333757],"Bias":4.592201972905843,"Lrate":2.126903064587442e-14},{"Weights":[6.541258652977758,1.3329194553325363,-8.333084822023077,-10.647383451950164],"Bias":11.875346843704074,"Lrate":3.799730494177619e-14},{"Weights":[6.943427832157963,1.2840484343651308,-8.027050516656223,-10.877266395916303],"Bias":12.290386473010148,"Lrate":-1.9922317759568936e-14},{"Weights":[2.5392849386057836,6.293156464571194,-6.2147845452974755,-10.232241206947926],"Bias":10.404115080776547,"Lrate":4.319901864357272e-14},{"Weights":[2.550082678085733,2.449122664033239,-1.2155412070171756,-4.179308489112934],"Bias":0.8889132840615261,"Lrate":-1.500398058722914e-14},{"Weights":[4.3309158998904485,2.695224325214454,-6.623167448494834,-9.79375513961158],"Bias":10.365912053253824,"Lrate":-1.0665352450745478e-13},{"Weights":[2.150123990113693,-0.8489751811837107,0.1843649321638007,-7.259625950219358],"Bias":2.0039570201881607,"Lrate":-1.1731565432986832e-13},{"Weights":[0.8158223695831922,6.3278081161895345,-6.343144606283349,-10.333987067129149],"Bias":8.561167419723535,"Lrate":-7.948636986653136e-15},{"Weights":[6.745786602436608,-1.0278831015800407,-9.260997076197643,-9.466571554471948],"Bias":8.939539507670244,"Lrate":-1.434874268580791e-14},{"Weights":[4.343176154832129,6.016628109309196,-7.2591545757810705,-10.378322216616102],"Bias":11.835941973039285,"Lrate":1.0487991427502075e-14},{"Weights":[10.783176992965274,-1.3996312610356727,-11.920484212353609,-11.469629606756108],"Bias":11.705151414110638,"Lrate":2.3971159082608052e-15}],"Length":30},{"Neurons":[{"Weights":[-2.605846620528544,-1.3992187778412672,-2.537390856805464,-2.2783792477846334,-2.539122920578941,-2.7087086093760693,-3.5008131523456236,-2.4972384900586433,-2.1862313021423487,-2.555654133493276,-2.2813614196518976,-2.715760027951638,-1.209391005853148,-3.412647987116552,-3.0410909406152786,-0.6012202102399954,-2.760028185131308,-2.614900495358552,4.4715392607518405,-2.2744893073880474,-2.1011038139225735,-2.2414165327110394,-2.7985771356621205,4.199698970585305,-2.621254387914426,2.356751233081042,-3.2588015707789655,-2.62708153572313,-2.394483843078762,-2.972816732328834],"Bias":5.594807598170392,"Lrate":1.0447325348506924e-13},{"Weights":[-0.9871929521222524,-2.416318557732259,-1.234229084081322,-1.0583249206874268,-0.8797572071961944,-0.9764274975190759,-1.1685630191584182,-1.1611653049335742,-0.8456356928981027,-1.147283278535732,-0.8460202768416479,-1.0756278783583417,-2.4366921838637907,-1.1577517953072773,-1.1029793776248646,-0.9418453551874518,-1.0244643332089516,-1.0880551204701943,-0.13715586202404229,-1.2142260069477386,-1.1390200902335488,-1.2165246465822646,-1.2023334706879303,-0.5578083883814288,-1.1866509770267708,-1.3946755414948742,-1.202447085553996,-1.1769993424968743,-0.8848076246888459,-1.3058625480668753],"Bias":1.9876677992559824,"Lrate":1.8962938509528675e-13},{"Weights":[0.522654995768876,-1.6522046046578949,0.3716043168717665,-1.4590562123705468,0.493510127469235,-0.08779116773308968,0.7659506482065734,-0.0032598721443212885,-0.030882412925427462,0.23560961360670568,-0.08615870776254951,0.14924803386742505,-1.9649854280169081,-0.1034049014634332,-0.20341620667091445,-3.0158373141040307,0.08852928726687484,0.4048687306014412,0.18565475520099955,-1.208718115992704,0.2438801265835495,-0.35671676869692504,0.4990072332734634,0.2367658937835175,0.4185787846329639,-1.7039778309609042,0.053055924784356195,-0.06448665459563604,0.5669893051543462,0.3460381692847387],"Bias":5.400352174343757,"Lrate":6.954055262075936e-14},{"Weights":[-1.1098025776392735,-2.7152816716192425,-1.249718307539147,-1.0398743750760724,-0.9881662021046203,-1.0750827781187453,-1.2375874160140636,-1.2358024293455407,-0.729396435546586,-1.1500526319505613,-0.8427948868644239,-1.1449910230225027,-2.7468681301710887,-1.197255263447556,-1.1063224942956604,-1.0046438802451811,-1.046258488118649,-1.1793851033686762,0.07186643437467902,-1.2281753365758257,-1.1196225432410254,-1.166874105072376,-1.3087561920589366,-0.368731282710153,-1.2169126149782004,-1.4448958870437585,-1.2900362709139237,-1.2031473164449187,-0.8000953173112881,-1.4726620844110068],"Bias":2.3687699615404116,"Lrate":1.4451749896846687e-13},{"Weights":[-1.2161365472839103,-3.024442826946379,-1.233862955853443,-0.8864806586378282,-1.0595148574724258,-1.132675788713503,-1.4180550199350337,-1.279430979900503,-0.5237359783784258,-1.072156778531154,-0.700572184751396,-1.1944322681872501,-3.1301676759900894,-1.272170570487821,-1.1135923558250498,-1.0538389280567544,-1.073163706172397,-1.230376528296681,0.30531901483587426,-1.1905374152365642,-1.1120555724005488,-0.9549465638897757,-1.4882658297490565,-0.1491707978365038,-1.3260451148306824,-1.5962267916077695,-1.341737812529858,-1.1622051707289154,-0.8335006677142973,-1.5547733706916504],"Bias":2.7384528742147136,"Lrate":9.788142136474671e-14},{"Weights":[0.5759615042331723,-2.986841248359037,0.35434924579430577,-2.6253414504425123,0.298571760038382,-0.4650455881215393,0.9215543241316567,0.1941637805395198,-0.426135699250321,0.1835457493578042,-0.43317563829312894,0.08487953573734006,-3.3668910886526,-0.11122243157545701,-0.14378857234929524,-2.8160148995987986,0.1599372654377456,0.3287913910131182,-0.28042519415818973,-1.166532954464341,-0.08715390908659743,-1.5565387259080974,0.5840573879623512,-0.22938260859061185,0.1194260776176005,-2.4745595639981817,0.25314765099480663,0.009132618565304996,0.5501111919872073,0.1316434029372555],"Bias":4.901054972441229,"Lrate":-1.026265652647985e-13},{"Weights":[-1.9803760129710624,0.27684946606814936,-0.7187194469173994,-1.4278546348177223,-1.9001969647823358,-1.8280609401912589,-1.5653798401898766,-0.23708003430414148,-0.8267412913718087,-1.33130897996838,-0.9871508220021092,-1.4751675420898884,-0.2580751187467236,-1.41870632991029,-0.9950148810504456,-0.14494692057922312,-1.0380900150334407,-1.6972033717000732,1.5395939974087485,-1.053211101751453,-1.0062914650850823,-0.9999036399675097,-0.8314505418842175,1.5498401123121022,-1.0220535932088022,1.021085354783534,-0.5465519277349917,-1.0231758573145149,-0.8301084457332513,-2.1011525816389764],"Bias":3.939305372652549,"Lrate":8.262826175705848e-14},{"Weights":[-1.0158298050174748,-1.7890763011391353,-0.9546919812348039,-1.281115333327333,-1.1732720068217606,-1.164619979510104,-0.7916774868010715,-0.730999326786196,-1.1288592343610737,-1.0823660408388294,-0.920716769262913,-1.2077992992954336,-2.170160416773865,-0.9959361639349466,-1.1478465281078571,-0.698463989221019,-1.0013296926535316,-1.179220267502166,-0.5641467605838719,-1.1385204716632236,-1.072314025049909,-1.2282885376617418,-0.7953020464999199,-0.885784974134125,-1.042805357575564,-1.0378072045006055,-0.770141025338659,-1.210972221244728,-0.9862308579282424,-1.2344036237402956],"Bias":0.8677896416642232,"Lrate":1.4380895281962369e-13},{"Weights":[0.15096277489308554,-1.737696982994507,0.21989858629617132,-0.12750375127659058,0.11957704331642151,-0.1996367828235561,0.2562356572904709,-0.27460505604574925,-0.085013109431755,0.062140467137623584,-0.13659191289992065,-0.09637536190387593,-2.058231338939335,-0.37715126097986956,-0.26652041131703785,-3.6343593267598773,0.005644189622824579,0.058084885069187644,0.34069669270354325,-1.6657469995680636,0.20732493603852,0.07228020909438644,0.14976166174249972,0.39327622346703256,0.23074787846604938,-0.4721816261043312,-0.2698941432728674,-0.19018895118997473,0.2675938775747299,0.06728601645844674],"Bias":7.102599339193384,"Lrate":1.1904436348486703e-13},{"Weights":[-0.9548389931577815,-1.8595748730673225,-1.1357044357614328,-1.1515770979082414,-1.0913163554174663,-1.1043459216726068,-1.020272521635568,-0.9606953635893136,-1.062350442222721,-1.1306715445929114,-0.906989195273503,-1.1764538537824827,-2.0921607997200478,-1.081226676346382,-1.1244290126054912,-0.7980610594693678,-1.007053355109211,-1.1550833647167305,-0.6953222491993656,-1.1729347282437048,-1.1350292746775614,-1.2240467405856752,-0.999057096065334,-1.0609902955296613,-1.1144933018206917,-1.2829493403997578,-0.9877657117098282,-1.1920942702134223,-1.0785601552072879,-1.215790582466073],"Bias":1.0250094793869116,"Lrate":-1.8914585841369492e-13},{"Weights":[-1.134818540093397,-2.800596685381489,-1.2512502468851785,-1.0125480836639633,-1.0156825201731374,-1.105314262661289,-1.2696156273292563,-1.2532995970828233,-0.6783209848926934,-1.1363714214527258,-0.8146061332734963,-1.163298565501329,-2.851855414988464,-1.2111326832084117,-1.108851969157069,-1.0190214850238373,-1.0551936356098355,-1.2008757448553318,0.1414286176739417,-1.2227907766861998,-1.114156005155666,-1.1137000996725743,-1.349072371623716,-0.30338668752237374,-1.2373258168166523,-1.4791074382109688,-1.3082398284579073,-1.2027240947265456,-0.7928207404728909,-1.5069363625806453],"Bias":2.4779273568835958,"Lrate":1.3679290226879196e-13},{"Weights":[-1.0627729134396986,-2.574916641107489,-1.2446467303278261,-1.057284842032647,-0.9272715866131193,-1.0164371351998744,-1.209892852251895,-1.2004611485664594,-0.7933125755828287,-1.1534392406149914,-0.8561827220867521,-1.1013046576542032,-2.5818174711873065,-1.1820434532021964,-1.101186072874338,-0.9774800269080971,-1.0334134484685706,-1.1269004966516105,-0.03482715671227983,-1.2251131419060484,-1.1361516620836356,-1.2239583669839953,-1.2624597999280949,-0.46710738985616307,-1.2042528583394085,-1.4093397114025081,-1.2518873122295207,-1.1898975061020496,-0.8399257100413772,-1.3937550486819044],"Bias":2.187651606317381,"Lrate":1.6238647067541871e-13},{"Weights":[-0.06928665612728722,-1.3270546191657564,-0.13894809888688095,-0.18458209923579408,0.025309606302483516,0.013889825909279209,-0.11523765385848303,-0.17198469411836412,0.13263498385805952,-0.3916320811883415,-0.031145568071958164,-0.0506242488682544,-1.5674472257858019,-0.5465216796516156,0.032302685450950275,-0.9943900002844164,-0.31295216394021735,-0.06355800638534714,-2.014307115909153,-1.5893376115079931,-0.039005708414109275,-0.05495095848274519,-0.16653650779305015,-1.965062010705022,-0.042722559387884204,-1.9649653405367533,-0.21522323917345515,-0.028636557555295063,0.07608682637785001,-0.16276808104608895],"Bias":2.392699322031082,"Lrate":-2.3724185849743252e-14},{"Weights":[0.17700244734304885,-1.5266812792154296,0.21462245432979116,-0.08473910039547908,0.13246217271123217,-0.18392917352537025,0.27882747253935447,-0.25684408885300736,-0.08447690462280738,0.04821095867056899,-0.1391623931491601,-0.07906484519432695,-1.7767817849247878,-0.3094141862528546,-0.2616670028445552,-3.3583298300510367,-0.013320605909136812,0.06766286023502793,0.32211641854725753,-1.5218530033277038,0.23519138372215054,0.07048813719269666,0.1456124737694446,0.3739333791154362,0.2615226897494029,-0.5902513166113529,-0.24719345883551538,-0.18023442885266297,0.2817498515718439,0.07553542279857477],"Bias":6.227015734132083,"Lrate":-1.137595554041009e-13},{"Weights":[-1.1143847556363515,-2.731205269645373,-1.2500843799748516,-1.0359148231298958,-0.994014349938978,-1.081347705894752,-1.2421721701561148,-1.2393830672522639,-0.720477675533212,-1.1483810286721652,-0.838570795390007,-1.1490547678536494,-2.766419031000967,-1.199424138430319,-1.106904310253198,-1.0073924703145583,-1.0479031941031856,-1.1842427412532435,0.0847874003729266,-1.2276366369009073,-1.1178809529210274,-1.1576252563950922,-1.3151319847883485,-0.35662615037632917,-1.219586011342866,-1.450605746192181,-1.2936892368717932,-1.2037835629894365,-0.7971804891526341,-1.4800253643303753],"Bias":2.3892435732074078,"Lrate":1.6034451378184162e-13}],"Length":15},{"Neurons":[{"Weights":[-3.039755353166119,-3.0036939134588376,-4.52548732852259,-2.9947026704472086,-2.986203730210163,-4.302028686345973,-3.5195033767395003,-3.0248656036934105,-4.958449493994888,-3.0174858278156975,-2.992349479211464,-2.9988437832984025,-3.606690385857382,-4.854404420337829,-2.994261642889817],"Bias":8.102860323520998,"Lrate":-4.7985882553499283e-14},{"Weights":[-8.48751426061846,-3.5295349629900064,3.2834632991095325,-3.980867930424241,-4.405735538495893,3.1306781407562165,-0.6907967734405722,-1.9957542345291326,5.580849685181449,-2.5675611261197857,-4.097262497199882,-3.7765060786964293,-0.13795899452020077,4.482987155169309,-4.002693320802494],"Bias":-7.4672056068376085,"Lrate":-6.011630446911745e-14},{"Weights":[8.225919677118362,2.578764369797436,-1.3122400362300948,2.6011933469459865,2.667679893737791,-2.403899552351101,1.5774573482014818,1.43791955746343,1.3910514032067696,2.1516106119424054,2.6132485658924196,2.594742177646304,1.1863620415168235,1.2660825953433277,2.6028254201763676],"Bias":-7.865644304677046,"Lrate":-1.1230778825172916e-14}],"Length":3}],"learning_rate":0.5}